net
{
    node_size = (80 40);
    HR_realname_AML = "AML";
    HR_realname_MDS1 = "MDS1";
    HR_realname_MDK = "MDK";
    HR_realname_PCCB = "PCCB";
    HR_realname_ATP2B4 = "ATP2B4";
    HR_realname_NAP1L1 = "NAP1L1";
    HR_Has_Constraints = "yes";
    HR_DBN_Num_Slices = "5";
    HR_Desc = "";
    HR_OOBN_CheckConsistency = "1";
    HR_OOBN_FitExpand = "1";
    HR_Zoom_ZoomFactor = "100";
    HR_Groups_GroupColors = "";
    HR_Groups_GroupNames = "";
    HR_Groups_UserGroupsNo = "0";
    HR_Utility_Link = "63";
    HR_Probabilistic_Link = "63";
    HR_Functional_Link = "63";
    HR_Binding_Link = "63";
    HR_Information_Arc = "63";
    HR_Color_Interface = "21";
    HR_Color_Instance = "0";
    HR_Color_DiscreteFunction = "5";
    HR_Color_Function = "4";
    HR_Color_Utility = "36";
    HR_Color_Decision = "17";
    HR_Color_ContinuousChance = "48";
    HR_Color_DiscreteChance = "16";
    HR_Monitor_InitSD = "2";
    HR_Monitor_Utility_Arrange = "0";
    HR_Monitor_Mean_Variance = "1";
    HR_Monitor_Chance_Utility = "1";
    HR_Monitor_InitStates = "5";
    HR_Monitor_OpenGraph = "0";
    HR_Monitor_GraphPrecision = "100";
    HR_Monitor_AutoUpdGraph = "0";
    HR_Compile_MaxMinimalSeparators = "100000";
    HR_Compile_ApproxEpsilon = "1.0E-5";
    HR_Compile_Approximate = "0";
    HR_Compile_SaveToMemory = "0";
    HR_Compile_Compress = "0";
    HR_Compile_TriangMethod = "0";
    HR_Propagate_AutoNormal = "1";
    HR_Propagate_AutoSum = "1";
    HR_Propagate_Auto = "1";
    HR_Font_Italic = "0";
    HR_Font_Weight = "400";
    HR_Font_Size = "-12";
    HR_Font_Name = "javax.swing.plaf.FontUIResource[family=Dialog,name=Dialog,style=bold,size=12]";
    HR_Grid_GridShow = "0";
    HR_Grid_GridSnap = "0";
    HR_Grid_Y = "40";
    HR_Grid_X = "40";
}

node NAP1L1
{
    position = (50 210);
    states = ("no" "yes");
}

node ATP2B4
{
    position = (210 190);
    states = ("no" "yes");
}

node PCCB
{
    position = (90 130);
    states = ("yes" "no");
}

node MDK
{
    position = (250 110);
    states = ("no" "yes");
}

node MDS1
{
    position = (50 50);
    states = ("yes" "no");
}

node AML
{
    position = (210 30);
    states = ("no" "yes");
    HR_Constraint_NAP1L1 = "Arrow";
    HR_Constraint_MDS1 = "Arrow";
    HR_Constraint_ATP2B4 = "Arrow";
    HR_Constraint_MDK = "Arrow";
    HR_Constraint_PCCB = "Arrow";
    HR_LinkGroup = "[PCCB:0][MDK:0][ATP2B4:0][MDS1:0][NAP1L1:0]";
    HR_LinkMode = "[PCCB:0][MDK:0][ATP2B4:0][MDS1:0][NAP1L1:0]";
}

potential (NAP1L1 | AML)
{
    data
     = (( 0.702703 0.297297 )	%  AML=no
	( 0.954545 0.0454545 ));	%  AML=yes
    experience
     = ( 37	%  AML=no
	 22 );	%  AML=yes
}

potential (ATP2B4 | AML)
{
    data
     = (( 0.72973 0.27027 )	%  AML=no
	( 0.954545 0.0454545 ));	%  AML=yes
    experience
     = ( 37	%  AML=no
	 22 );	%  AML=yes
}

potential (PCCB | AML)
{
    data
     = (( 0.702703 0.297297 )	%  AML=no
	( 0.909091 0.0909091 ));	%  AML=yes
    experience
     = ( 37	%  AML=no
	 22 );	%  AML=yes
}

potential (MDK | AML)
{
    data
     = (( 0.621622 0.378378 )	%  AML=no
	( 0.954545 0.0454545 ));	%  AML=yes
    experience
     = ( 37	%  AML=no
	 22 );	%  AML=yes
}

potential (MDS1 | AML)
{
    data
     = (( 0.72973 0.27027 )	%  AML=no
	( 0.954545 0.0454545 ));	%  AML=yes
    experience
     = ( 37	%  AML=no
	 22 );	%  AML=yes
}

potential (AML)
{
    data = ( 0.631579 0.368421 );
    experience = 57;
}
